{"labels": ["conceder", "fairish", "hardliner", "wallish"], "prefix_turns": 4, "feature_names": ["n_offers_seen", "opening_advantage", "latest_advantage", "best_advantage", "mean_advantage", "concession_slope", "total_concession", "mean_offer_movement", "repeat_rate", "stubborn_issue_fraction", "rounds_since_improvement"], "metadata": {"label_kind": "coarse", "train_size": 2304, "test_size": 576, "test_accuracy": 0.7725694179534912, "data": "/mnt/c/Users/sunny/Desktop/Brown/CS/Research/RainyDayNegotiator/opponent_type/data/trajectories.jsonl"}, "layers": [{"weight": [[-0.0742817297577858, -0.15833593904972076, -0.07779382914304733, -0.11721604317426682, 0.2449871003627777, -0.2352069467306137, -0.12462259083986282, 0.22007767856121063, 0.024762289598584175, -0.22317659854888916, 0.073216512799263], [-0.23954591155052185, 0.17345181107521057, 0.032533369958400726, -0.020942162722349167, -0.1621701866388321, -0.16800206899642944, -0.09961388260126114, -0.027676038444042206, -0.14958932995796204, 0.079001285135746, -0.19860447943210602], [-0.12861280143260956, -0.18236477673053741, 0.012713517062366009, -0.304053395986557, 0.2288532853126526, 0.19233769178390503, 0.24571368098258972, -0.13895674049854279, -0.029078572988510132, -0.028224635869264603, -0.09406059235334396], [0.10443243384361267, 0.09606929868459702, -0.18820396065711975, -0.02738741599023342, -0.23825965821743011, 0.12736806273460388, 0.16337542235851288, 0.0309852696955204, -0.25282981991767883, -0.11888150125741959, 0.17696894705295563], [-0.11984756588935852, -0.1694171130657196, -0.4344867169857025, -0.26400578022003174, -0.3984907865524292, -0.3633716404438019, -0.32305845618247986, -0.02838076278567314, 0.3539470136165619, 0.3671170473098755, 0.09497890621423721], [0.14680427312850952, 0.37653303146362305, 0.11641177535057068, 0.38163644075393677, 0.23203276097774506, -0.9747447371482849, -1.0726426839828491, 0.4329601228237152, 0.050106216222047806, 0.06644012033939362, 0.09912993758916855], [-0.35128846764564514, -0.30210965871810913, -0.3787183165550232, -0.039636094123125076, 0.021901007741689682, -3.5086193084716797, -2.558872699737549, 1.0749571323394775, 0.19474416971206665, 0.20913483202457428, -0.37227749824523926], [0.02980349212884903, 0.28102096915245056, 0.41096776723861694, 0.5266136527061462, 0.6090578436851501, 1.0630701780319214, 0.8549908995628357, 1.1762187480926514, 0.2473943829536438, 0.017658719792962074, -0.15119054913520813], [0.005911482032388449, -0.1263498216867447, 0.04280674830079079, -0.12158909440040588, 0.032314226031303406, -2.5193066596984863, -1.6426045894622803, 1.1283197402954102, -0.03211298957467079, -0.26340994238853455, 0.2425648272037506], [0.06226184591650963, 0.5162793397903442, 0.5482107996940613, 0.29847466945648193, 0.21504342555999756, -0.14337214827537537, -0.3928194046020508, 0.3711058795452118, 0.34910422563552856, -0.08890068531036377, 0.0005669022211804986], [-0.15786845982074738, -0.04318013787269592, -0.15961521863937378, -0.09965281188488007, -0.29077354073524475, 0.04349154978990555, 0.15725836157798767, 0.06806398183107376, -0.18070539832115173, 0.13761988282203674, 0.29796984791755676], [0.1858135461807251, -0.04690710827708244, 0.07585979253053665, 0.19686616957187653, 0.2077261358499527, -3.0798568725585938, -2.167935609817505, 0.39384162425994873, -0.14269417524337769, -0.12760023772716522, 0.31111350655555725], [-0.3328104019165039, 0.3012852966785431, 0.26769816875457764, 0.6931488513946533, 0.7069642543792725, -3.3005220890045166, -3.0071091651916504, -1.7423104047775269, -0.5918636322021484, -0.9421578049659729, -1.172768235206604], [-0.1688321828842163, -0.10712409019470215, -0.070135697722435, -0.27199840545654297, -0.17720188200473785, 0.2717982530593872, 0.016260340809822083, -0.030706029385328293, -0.16323484480381012, -0.07848945260047913, 0.015614517964422703], [0.04801482707262039, 0.12016751617193222, -0.07189334183931351, -0.25429677963256836, 0.14469270408153534, -0.18843506276607513, -0.03518412634730339, -0.18041004240512848, -0.11729484051465988, 0.13024328649044037, 0.10918201506137848], [0.6051502227783203, -1.4526649713516235, -1.4165399074554443, -0.9534964561462402, -1.1901047229766846, 0.9993746280670166, 1.1211885213851929, 1.5498911142349243, 0.4066627323627472, 0.17617130279541016, 0.2733171880245209], [0.05431054159998894, 0.9837294220924377, 0.8587830066680908, 0.8582128882408142, 1.1015690565109253, 0.21722294390201569, -0.20364893972873688, 1.1989634037017822, -0.617664635181427, -0.6993916630744934, -0.15974430739879608], [-0.014054300263524055, 0.47762393951416016, 0.6716936230659485, 0.5136517882347107, 0.196110337972641, -0.7468447089195251, -0.9377856850624084, 0.0811997652053833, 0.44389817118644714, 0.4850163757801056, 0.14940187335014343], [0.19469043612480164, 0.5087264180183411, 0.4555497467517853, 0.41321033239364624, 0.3163204789161682, -0.4687526226043701, -0.642974317073822, 0.7387378215789795, 0.23063519597053528, -0.026601014658808708, -0.18912814557552338], [-0.08631018549203873, 0.37859219312667847, -0.021204741671681404, 0.014059544540941715, -0.1014825776219368, -2.2031121253967285, -1.0457170009613037, 1.0916558504104614, -0.47722306847572327, 0.18995536863803864, 0.4061106741428375], [-0.2866230905056, -0.24972344934940338, 0.10098456591367722, 0.17930127680301666, 0.16327747702598572, -0.11282187700271606, 0.11366840451955795, 0.03757285699248314, -0.006239444948732853, 0.006289513781666756, 0.23331929743289948], [-0.11041847616434097, -0.08084393292665482, -0.1955593228340149, -0.2135636806488037, 0.28291964530944824, 0.2634463608264923, -0.2578507661819458, -0.18320180475711823, 0.11315938085317612, 0.11084023118019104, 0.1624273955821991], [-0.0909249410033226, 0.30950385332107544, 0.024922126904129982, 0.028483636677265167, 0.001895839930512011, -4.798340797424316, -4.016474723815918, 0.3798025846481323, 0.09825409948825836, 0.1996484398841858, 0.016859145835042], [0.201910138130188, 0.26810070872306824, 0.37231388688087463, -0.0982096791267395, -0.07026438415050507, 1.184654951095581, 0.5701835751533508, 0.0451885461807251, -0.21042400598526, -0.1466677337884903, 0.16113878786563873], [-0.4563986659049988, 0.6696432828903198, 0.5637086629867554, 0.6763703227043152, 0.7761354446411133, 2.087465763092041, 2.394832134246826, -0.4395390450954437, 0.034579239785671234, -0.07834579795598984, -0.06675919890403748], [0.3413827121257782, 0.45568475127220154, 0.2472066432237625, 0.2389450967311859, 0.3833884000778198, -0.49571868777275085, -0.5907742977142334, 0.33217212557792664, -0.25666338205337524, -0.16379870474338531, 0.13192935287952423], [-0.022448290139436722, -0.11900416761636734, -0.017404161393642426, -0.2972288131713867, -0.16314198076725006, -0.9892520904541016, -1.190224528312683, -0.06449005752801895, 0.3548741638660431, 0.2769600749015808, 0.10618171095848083], [-0.12161409854888916, 0.2330380082130432, -0.20327508449554443, 0.2642726004123688, -0.23391547799110413, 0.2872852087020874, 0.2840138375759125, -0.0837581530213356, 0.07042273879051208, -0.07322898507118225, -0.10122869163751602], [0.5368083119392395, -0.222316712141037, 0.18998172879219055, -0.2080579549074173, -0.29552793502807617, 2.313948392868042, 1.8836779594421387, 2.715052843093872, -0.170134499669075, -0.5838150382041931, 0.19860433042049408], [-0.1982121616601944, -0.25855979323387146, 0.14200371503829956, -0.12321604043245316, -0.16817204654216766, -0.23813752830028534, 0.24517469108104706, 0.0790235698223114, -0.2505289316177368, -0.2971145510673523, 0.19790653884410858], [-0.21259069442749023, -0.3394809663295746, -0.44720807671546936, -0.4809756875038147, -0.20620575547218323, -0.1494300812482834, -0.21951492130756378, -0.4295533001422882, 0.2848832905292511, 0.034765779972076416, 0.1424887329339981], [-0.029760872945189476, -0.018137965351343155, -0.2591800093650818, -0.08521531522274017, -0.1989869773387909, -0.18846511840820312, -0.2582964301109314, 0.13191980123519897, -0.015999868512153625, 0.2615903615951538, -0.09944847226142883], [-0.2504768967628479, -0.3673924505710602, -0.3363875448703766, -0.37927356362342834, -0.1560388207435608, -0.02419445663690567, 0.4829508364200592, -1.8452012538909912, 0.519868016242981, 0.08075634390115738, -0.03887011855840683], [0.05293218046426773, 0.1233711838722229, -0.22602687776088715, 0.03665786236524582, 0.13260518014431, -3.22578501701355, -2.9025535583496094, 0.2555139362812042, 0.28394952416419983, 0.17118385434150696, -0.33638206124305725], [-0.1104377955198288, 0.8169088959693909, 0.8898008465766907, 0.4595406949520111, 0.7520096898078918, 1.7036988735198975, 1.3957997560501099, -1.1618735790252686, -0.33655184507369995, -0.22159036993980408, 0.07713158428668976], [-0.17419622838497162, 0.058172233402729034, -0.14667050540447235, -0.2835911512374878, -0.06033693253993988, -0.2678614854812622, 0.10956922173500061, 0.08591160178184509, -0.21802189946174622, -0.13775180280208588, 0.2659923732280731], [0.26171597838401794, -0.12104145437479019, 0.13767363131046295, 0.08276713639497757, -0.08337216079235077, -0.15032950043678284, 0.10141947865486145, -0.019515765830874443, -0.2220272421836853, -0.2704460024833679, -0.15136566758155823], [-0.05643682926893234, -1.922489047050476, -1.6716785430908203, -1.7060513496398926, -1.9760509729385376, -0.29683205485343933, -0.45708030462265015, -0.801903247833252, 0.4546818435192108, 0.42414727807044983, 0.02540574222803116], [0.032995305955410004, 0.4103844463825226, 0.30729368329048157, 0.5708183646202087, 0.5941781997680664, 0.9553126692771912, 1.0259475708007812, 0.46782612800598145, 0.09863294661045074, 0.08765251934528351, -0.37906739115715027], [0.5610584616661072, -2.669652223587036, -1.622196912765503, -1.821370005607605, -1.803764820098877, 2.471933126449585, 2.4901885986328125, 1.937892198562622, 0.23259104788303375, -0.12938091158866882, 0.18510732054710388], [0.3617866337299347, -0.021923040971159935, 0.01995881274342537, -0.393263041973114, -0.36389780044555664, -0.25378674268722534, -0.5130417346954346, -1.0843344926834106, 0.08872409164905548, 0.06015278398990631, 0.1424572467803955], [0.17515774071216583, -0.22514061629772186, -0.13280953466892242, -0.21420228481292725, -0.051601141691207886, 0.21325770020484924, 0.189319908618927, 0.11092110723257065, 0.11005505919456482, -0.25995659828186035, 0.1528390347957611], [0.053210772573947906, 0.3411129117012024, 0.16768579185009003, 0.27704131603240967, 0.14622154831886292, 1.1320137977600098, 0.6566212773323059, -0.20348116755485535, -0.38801631331443787, -0.25291135907173157, 0.07164022326469421], [-0.5913866758346558, 0.5585894584655762, 0.31165629625320435, 0.5877045392990112, 0.810621976852417, -6.746218204498291, -5.304821014404297, -1.1265804767608643, -1.0077964067459106, -0.481273353099823, -1.2127699851989746], [0.10082624107599258, 0.49887821078300476, 0.30878356099128723, 0.611471951007843, 0.631372332572937, 0.7548246383666992, 0.5463337898254395, 0.4436555802822113, 0.5423510670661926, -0.08085859566926956, 0.20113182067871094], [-0.06196501478552818, 0.6199896335601807, 0.9276183843612671, 0.6338217258453369, 0.701548159122467, 2.656449317932129, 1.6291996240615845, 0.296221524477005, 0.086417056620121, -0.6821506023406982, -0.3878224790096283], [0.031228315085172653, 0.25531288981437683, -0.0752461850643158, 0.34831905364990234, 0.23402632772922516, -2.4843101501464844, -2.134983777999878, 0.6543283462524414, 0.18951870501041412, 0.2609521150588989, -0.3102920949459076], [0.22108212113380432, 0.5085358023643494, 0.2747706174850464, 0.35202834010124207, 0.5009196996688843, -1.4396899938583374, -1.6442948579788208, -0.03330661728978157, 0.0308627150952816, 0.5377361178398132, 0.2323131263256073], [-0.2038649469614029, -0.22383305430412292, -0.05242186412215233, -0.073274165391922, -0.21221564710140228, 0.08452783524990082, -0.20341041684150696, -0.08514120429754257, -0.15161924064159393, 0.09121207147836685, -0.024705281481146812], [0.17485129833221436, -0.4517481029033661, -0.1245967373251915, -0.3152279555797577, -0.3928208649158478, -0.05515386164188385, -0.4683997631072998, -1.9940310716629028, 0.26835519075393677, -0.09390807896852493, -0.2796684503555298], [0.07432703673839569, -0.14086012542247772, 0.3928816020488739, -0.06864019483327866, 0.3459540009498596, 0.6883721351623535, 0.27785393595695496, 0.13529208302497864, 0.37667402625083923, -0.1294928938150406, 0.031185952946543694], [-0.07413417100906372, -0.05015271157026291, -0.20324143767356873, -0.07646392285823822, -0.05837768316268921, 0.1667930632829666, -0.1517634093761444, -0.15213149785995483, -0.26838818192481995, -0.07932185381650925, 0.18239693343639374], [0.057415664196014404, 0.5825822949409485, 0.5358624458312988, 0.4717696011066437, 0.17357593774795532, 0.4399241805076599, -0.2299845814704895, 0.2920892536640167, 0.5207945704460144, -0.09563878178596497, 0.2772565186023712], [0.5582285523414612, -1.0681811571121216, -1.3817721605300903, -1.2674752473831177, -1.4003829956054688, -0.7616472244262695, -0.002048077993094921, 0.5861169099807739, 0.09450080990791321, 0.23216857016086578, 0.19682252407073975], [0.41739723086357117, -1.3259716033935547, -1.3419628143310547, -1.2701064348220825, -1.67377769947052, -0.35045257210731506, 0.13877896964550018, 1.2285312414169312, 0.3768486976623535, 0.44504353404045105, 0.01472834125161171], [0.14167097210884094, -2.5062737464904785, -2.0590689182281494, -1.8713759183883667, -2.138949394226074, 0.18294142186641693, 0.15977928042411804, -1.1521750688552856, 0.4361250400543213, 0.2723424434661865, 0.34815505146980286], [-0.17676927149295807, 0.27064913511276245, 0.055967651307582855, -0.11644922196865082, -0.03623271733522415, -2.4319427013397217, -1.7642357349395752, 0.4659232199192047, 0.17799054086208344, 0.25669676065444946, -0.31335777044296265], [-0.056042660027742386, -0.4679354131221771, -0.26181018352508545, -0.3373546004295349, -0.08749579638242722, 0.010342154651880264, -0.05977483093738556, -1.2881661653518677, 0.27359408140182495, 0.11173269152641296, -0.12890885770320892], [0.09664521366357803, -0.06415560841560364, 0.1110728308558464, -0.29618096351623535, -0.2703656852245331, -0.15476976335048676, 0.2128312736749649, 0.19690026342868805, -0.2806210219860077, -0.07343105971813202, 0.2536773979663849], [-0.07655303180217743, -0.6286447048187256, -0.9101783037185669, -0.5544750094413757, -0.8154525756835938, -1.365992784500122, -0.7804152369499207, 0.6243536472320557, 0.4737502634525299, 0.4887504577636719, 0.3399426341056824], [-0.27082404494285583, 0.08427860587835312, -0.29852294921875, 0.19537633657455444, 0.09863335639238358, 0.07143557816743851, 0.10966227203607559, 0.2225228250026703, 0.01631130836904049, 0.07921212166547775, -0.27621063590049744], [0.4242236018180847, -0.7533019185066223, -0.8800575733184814, -0.5581904053688049, -0.9545707702636719, -1.9115891456604004, -1.4311662912368774, -0.6534327864646912, 0.20301330089569092, 0.3732101321220398, 0.18615590035915375], [-0.060094572603702545, 0.1455010622739792, -0.24797630310058594, -0.37366148829460144, -0.3394763171672821, -0.08524849265813828, 0.05563945323228836, -1.0538618564605713, -0.10631422698497772, 0.2882315516471863, -0.3500487208366394], [-0.21543067693710327, -0.24548064172267914, -0.4413910210132599, -0.06941642612218857, -0.42468690872192383, 0.19636237621307373, 0.2781639099121094, -1.016315221786499, 0.39790162444114685, 0.3170373737812042, -0.2842663526535034]], "bias": [-0.08594896644353867, -0.28076788783073425, 0.080031618475914, -0.1825418919324875, -0.07980389893054962, -0.15993520617485046, 0.14324471354484558, -0.5110605359077454, -0.12416854500770569, -0.1946941614151001, -0.1833861619234085, -0.428641676902771, 1.0962283611297607, 0.11894116550683975, -0.26548609137535095, 0.4824766516685486, -0.3838772177696228, -0.10425150394439697, -0.35004299879074097, -0.276796817779541, -0.22017686069011688, -0.26348769664764404, -0.22347411513328552, -0.004990481771528721, -0.9848095178604126, -0.3180345892906189, 0.18213023245334625, -0.23583315312862396, 0.04870053008198738, 0.11506219953298569, 0.23904718458652496, -0.23272179067134857, 0.4005291759967804, -0.11961385607719421, -0.7264302968978882, 0.17951984703540802, -0.10930122435092926, 0.443888396024704, 0.2107929289340973, 0.4705042243003845, -0.08458606898784637, -0.21499763429164886, 0.06796190142631531, 1.1184685230255127, 0.1163436695933342, -0.7209097146987915, -0.3497874438762665, 0.29907235503196716, 0.07382815331220627, 0.2430550903081894, -0.3017498850822449, -0.05967342481017113, 0.2600555717945099, 0.5673867464065552, 0.5277705192565918, 0.5127398371696472, -0.14342056214809418, 0.12589119374752045, -0.26943787932395935, 0.158567413687706, -0.17279377579689026, 0.2336311787366867, 0.36039042472839355, 0.23916086554527283], "activation": "relu"}, {"weight": [[-0.04632015526294708, 0.01528988778591156, 0.07767987251281738, 0.11471690237522125, 0.03672287240624428, -0.02632315270602703, -0.041317593306303024, 0.09324651211500168, 0.11995609104633331, -0.12162098288536072, -0.07701127231121063, -0.06181779131293297, 0.03095000982284546, 0.006902754306793213, -0.0309293270111084, -0.06678047776222229, 0.061134517192840576, -0.05355549231171608, -0.09541422128677368, -0.1342718005180359, -0.008254274725914001, -0.08774834871292114, -0.09487569332122803, -0.11885064095258713, -0.03087371587753296, -0.10709312558174133, -0.024564554914832115, -0.03602913022041321, 0.015818417072296143, -0.08250021934509277, -0.11206060647964478, 0.03464441001415253, 0.05882704257965088, -0.10808011889457703, -0.07609102129936218, -0.09913839399814606, 0.10154429078102112, -0.030407458543777466, -0.13076356053352356, -0.08993524312973022, -0.06312324851751328, 0.09082747995853424, -0.03922474384307861, -0.02066265046596527, -0.11694072932004929, 0.0033413320779800415, -0.007921318523585796, 0.06401093304157257, -0.03961779177188873, 0.03127019479870796, 0.06866925209760666, 0.07829554378986359, -0.010043691843748093, -0.11411203444004059, 0.024404609575867653, -0.041710853576660156, 0.022118467837572098, 0.0002040136168943718, 0.022852540016174316, 0.031465914100408554, -0.09201708436012268, 0.012667338363826275, 0.02785314805805683, 0.0892847403883934], [0.09235812723636627, 0.07422113418579102, 0.0007078372873365879, 0.12279200553894043, 0.25093308091163635, 0.06829994171857834, -0.010216351598501205, -0.2606479525566101, 0.15824775397777557, -0.02708105929195881, 0.11105285584926605, -0.02493770234286785, 1.2768298387527466, 0.08290940523147583, -0.004918752703815699, -0.17913681268692017, -1.4976485967636108, 0.03436162695288658, 0.0240631140768528, -0.045008886605501175, 0.0733649879693985, 0.07272624969482422, 0.04512129724025726, 0.06574182212352753, -1.9985190629959106, 0.08246304839849472, 0.20285369455814362, -0.0310603529214859, -0.9939203858375549, -0.09848786890506744, 0.1273162066936493, -0.0967978984117508, 0.25807464122772217, 0.115892693400383, -3.3597874641418457, 0.10496474802494049, 0.020634427666664124, 2.0641040802001953, 0.062337156385183334, -2.707937479019165, 0.2767104208469391, 0.06537280976772308, 0.10353410243988037, 1.400732398033142, 0.177463561296463, -0.699600875377655, -0.05651482194662094, 0.17862629890441895, 0.020149141550064087, 0.19246233999729156, 0.08473111689090729, -0.11347027122974396, 0.12964661419391632, -0.6006432175636292, -0.9283702373504639, 2.925924301147461, 0.06056700646877289, 0.18849091231822968, -0.10569767653942108, -0.36584213376045227, -0.04319065809249878, -0.10379348695278168, 0.21146351099014282, 0.12473306059837341], [-0.061326853930950165, -0.12114213407039642, 0.11366358399391174, 0.0786600112915039, 0.0360584631562233, 0.4472620487213135, 0.513911247253418, 0.2825177311897278, 0.12631167471408844, 0.5262871384620667, 0.01743072271347046, 0.2902301251888275, -0.4795796275138855, 0.11218449473381042, -0.02071864902973175, 1.6956483125686646, -0.31578749418258667, 0.5418404340744019, 0.5598549842834473, 0.2001412808895111, 0.11897578835487366, 0.11030781269073486, 0.25900059938430786, 0.4299444854259491, 2.2647292613983154, 0.4214583933353424, 0.37462565302848816, 0.11271931231021881, 1.4162870645523071, -0.005377650260925293, 0.005663504358381033, 0.05177408456802368, 0.18354623019695282, 0.3537159860134125, 0.92698734998703, -0.12142398953437805, -0.12169219553470612, -3.8768889904022217, 0.6172674894332886, 0.6851887702941895, -0.06240905076265335, 0.06911928951740265, 0.4219040870666504, -0.9989197850227356, 0.5623483657836914, 0.6001358032226562, 0.42120906710624695, 0.43909817934036255, -0.08263468742370605, 0.05955037847161293, 0.41870978474617004, 0.050869062542915344, 0.48637163639068604, -2.893144369125366, -3.5835440158843994, -6.270596981048584, 0.3696589469909668, 0.05042102560400963, 0.07428738474845886, 0.9380603432655334, 0.04420478641986847, 1.0459706783294678, 0.023251354694366455, 0.30573970079421997], [-0.028293773531913757, 0.06645841896533966, 0.07511426508426666, 0.057200074195861816, -0.04012518748641014, 0.03232313320040703, -0.09061554074287415, -0.017315998673439026, -0.10736779123544693, 0.06012805178761482, 0.004405573010444641, -0.02012462168931961, -0.05019208788871765, -0.01384599506855011, 0.07712215185165405, -0.08921512961387634, -0.053274333477020264, -0.13559590280056, -0.12887519598007202, 0.033117301762104034, 0.051252469420433044, -0.11615695059299469, -0.13960899412631989, -0.06794288754463196, -0.055691197514534, -0.004932301584631205, -0.051568251103162766, 0.02493707835674286, -0.06404251605272293, -0.056076228618621826, -0.08324096351861954, 0.03101488947868347, -0.09364216029644012, -0.16059237718582153, 0.11869379878044128, -0.021697014570236206, -0.0489751398563385, -0.1240871250629425, -0.019610615447163582, -0.04176643490791321, -0.10134458541870117, -0.08883988857269287, -0.1511947512626648, -0.004846349358558655, -0.022620266303420067, -0.07254990935325623, -0.14508475363254547, -0.024132516235113144, 0.014951229095458984, -0.023631498217582703, -0.0862896665930748, 0.05045318603515625, -0.13319389522075653, -0.18575745820999146, -0.03518487885594368, -0.1283242404460907, 0.017521575093269348, -0.10881276428699493, 0.0670442134141922, -0.008007923141121864, 0.11881440877914429, 0.019548548385500908, 0.03241594135761261, -0.10926282405853271], [-0.08446049690246582, -0.014154091477394104, 0.09598065912723541, -0.03670036792755127, -0.08670274913311005, 0.06211821734905243, -0.19738644361495972, 0.019227560609579086, -0.20123912394046783, -0.10727917402982712, 0.030007973313331604, -0.011072986759245396, -0.05579482391476631, -0.07415725290775299, -0.0940508246421814, -0.044788919389247894, -0.015787921845912933, 0.027541115880012512, -0.12083516269922256, -0.0009548214147798717, 0.08936156332492828, -0.02359752357006073, -0.16619263589382172, -0.008814406581223011, 0.08301658928394318, -0.0955052599310875, -0.08302577584981918, -0.039462149143218994, -0.10939741134643555, -0.1194847822189331, -0.18686088919639587, 0.09864529967308044, -0.05476364493370056, -0.14345267415046692, 0.045251745730638504, 0.07447761297225952, 0.12192541360855103, -0.08929970860481262, 0.0687156692147255, -0.25147324800491333, -0.11808428168296814, -0.060241684317588806, -0.06968136131763458, -0.09003742039203644, 0.005622089374810457, -0.09426309168338776, -0.02796146087348461, -0.021544476971030235, 0.055895790457725525, -0.06158587709069252, -0.02753267250955105, 0.11714793741703033, -0.06469075381755829, -0.2338520735502243, -0.11563333868980408, -0.2764935791492462, -0.12506888806819916, -0.1106855720281601, 0.04296736419200897, -0.10253921896219254, -0.06114472448825836, 0.03825723007321358, -0.11135118454694748, -0.20415836572647095], [-0.08959878981113434, 0.03729979693889618, 0.024783864617347717, 0.030815526843070984, -0.05034799873828888, 0.08604928851127625, 0.01143699325621128, -0.028674595057964325, -0.05585947632789612, -0.08069909363985062, 0.03282378613948822, -0.07046625018119812, 0.006815010216087103, 0.11077438294887543, -0.01992931216955185, 0.090436652302742, -0.10297805815935135, 0.0553559809923172, 0.0016129943542182446, -0.12212568521499634, -0.027220577001571655, 0.09290458261966705, -0.07825300097465515, -0.06689310073852539, 0.050517357885837555, -0.15563379228115082, -0.10573849081993103, 0.08438117802143097, -0.08933049440383911, -0.11979414522647858, -0.06501521915197372, -0.09523682296276093, -0.08890888094902039, -0.09916133433580399, -0.005611824337393045, -0.005757972598075867, 0.07865405082702637, -0.08601775020360947, -0.10450301319360733, -0.029523730278015137, -0.12724569439888, -0.0007546395063400269, 0.0770212858915329, 0.04057931900024414, 0.04191485419869423, 0.09232929348945618, 0.005669088568538427, -0.14698855578899384, 0.04435312747955322, -0.07209879159927368, 0.022140979766845703, 0.12461787462234497, -0.08233882486820221, 0.0615951269865036, -0.08129902184009552, -0.004687756299972534, 0.052244387567043304, 0.09168010205030441, -0.002476409077644348, 0.1023305356502533, 0.03619520366191864, -0.04472536966204643, -0.12922032177448273, -0.027039870619773865], [-0.05204218998551369, -0.02357780933380127, 0.0051267086528241634, -0.04238073527812958, 0.11129254847764969, 0.041549596935510635, 0.2867891490459442, 0.3028910160064697, 0.15133550763130188, 0.013206450268626213, -0.06389667093753815, 0.19884593784809113, -1.154636025428772, -0.01296079158782959, 0.02562459371984005, -0.9976910948753357, 2.2838141918182373, 0.057063259184360504, -0.07574853301048279, 0.1817178577184677, 0.049727290868759155, 0.02414850890636444, 0.14842811226844788, 0.012096758931875229, 2.3197405338287354, -0.07876326143741608, 0.16819004714488983, -0.008247092366218567, 0.7879751324653625, 0.03630317747592926, 0.18892258405685425, -0.0888979360461235, 0.041352514177560806, 0.04569165036082268, 4.57889461517334, 0.10820445418357849, 0.11134214699268341, 0.7888211011886597, -0.14261209964752197, 1.934070348739624, 0.16416124999523163, -0.03400805592536926, 0.04218504577875137, -1.2422114610671997, -0.03844074904918671, 0.13238072395324707, -0.03614621236920357, -0.04329141974449158, -0.08934922516345978, 0.15288060903549194, 0.10910023003816605, -0.024789199233055115, -0.04197726026177406, 0.782420814037323, 1.1244041919708252, -1.3608384132385254, 0.10853470116853714, 0.2039402574300766, -0.04840414598584175, 0.28324005007743835, 0.03804956376552582, 0.1536235809326172, 0.18693533539772034, 0.06842892616987228], [0.04588167369365692, 0.09583599865436554, -0.05930851399898529, 0.005077272653579712, 0.07051894813776016, 0.33637338876724243, 0.1870500147342682, 0.06595712900161743, 0.23643428087234497, 0.356819212436676, -0.0789630264043808, 0.15374548733234406, -0.5656208395957947, 0.08456924557685852, 0.021470963954925537, -1.7617000341415405, 0.49339887499809265, 0.3608698844909668, 0.2891455888748169, 0.17718861997127533, -0.0643845796585083, 0.035474106669425964, 0.14252391457557678, 0.29247012734413147, -0.5980154871940613, 0.2761880159378052, 0.2307506501674652, -0.05278654396533966, -0.18565015494823456, -0.07905636727809906, 0.04923158884048462, 0.042784884572029114, 0.1391022801399231, 0.21902479231357574, 2.3649280071258545, 0.08314114809036255, 0.09458908438682556, -2.328158378601074, 0.33723920583724976, -1.186772346496582, 0.14598828554153442, 0.008482217788696289, 0.21278971433639526, -0.4354896545410156, 0.4440414607524872, -0.482822060585022, 0.24533703923225403, 0.32943257689476013, 0.11029189825057983, 0.05056807026267052, 0.25971731543540955, 0.053294286131858826, 0.26708200573921204, 0.9323633313179016, 1.4086321592330933, -3.2191274166107178, 0.26298847794532776, 0.06504041701555252, -0.10685019195079803, -0.3091399371623993, 0.05821669101715088, -0.46105659008026123, 0.12240917980670929, 0.20507730543613434], [-0.02740195393562317, -0.10789087414741516, 0.07452698796987534, -0.10377605259418488, -0.11465360224246979, 0.20538242161273956, 0.13440090417861938, 0.25307992100715637, -0.12220688164234161, 0.2669517695903778, 0.04209935665130615, 0.21622832119464874, -2.050194263458252, 0.06094643473625183, 0.06621840596199036, -2.861330986022949, 1.3589870929718018, 0.221867173910141, 0.3112953007221222, -0.01788443885743618, -0.05191327631473541, -0.07849429547786713, 0.10513540357351303, 0.3100360929965973, 3.4108309745788574, 0.381208598613739, 0.13053518533706665, 0.09680590033531189, 1.0712730884552002, -0.0736890435218811, -0.09961827844381332, -0.14512743055820465, -0.12719900906085968, 0.15275080502033234, 3.7825896739959717, 0.042573168873786926, 0.039026275277137756, 0.11283102631568909, 0.3473983407020569, 0.156558096408844, -0.11230859160423279, 0.03548420965671539, 0.178658127784729, -2.2957165241241455, 0.35065433382987976, 0.8244005441665649, 0.22802218794822693, 0.27283698320388794, 0.09631934762001038, -0.192963108420372, 0.19254574179649353, -0.0318504273891449, 0.30958548188209534, 0.8483713865280151, 1.4662805795669556, -1.7944344282150269, 0.1255423128604889, -0.17554399371147156, 0.11251150071620941, -0.29045164585113525, 0.11508128046989441, -0.44705718755722046, -0.02927253767848015, -0.044909026473760605], [-0.08959069848060608, 0.029343515634536743, 0.08702658116817474, -0.031193822622299194, -0.1632123738527298, -0.1750972718000412, -0.14995300769805908, -0.022164007648825645, -0.07694903016090393, -0.2253771871328354, 0.11585012078285217, -0.11302778124809265, -0.1329171061515808, 0.038558974862098694, 0.040409401059150696, -0.01671702414751053, 0.043502483516931534, 5.4773714509792626e-05, -0.07243922352790833, -0.14108915627002716, -0.006385192275047302, -0.0339045375585556, 0.03919096291065216, -0.059823717921972275, 0.02197941765189171, 0.021452531218528748, -0.18511170148849487, 0.025551125407218933, -0.15947608649730682, -0.05075410008430481, -0.06723571568727493, 0.04232895374298096, -0.05353715643286705, 0.013899841345846653, -0.14756576716899872, -0.07338359951972961, -0.017518579959869385, -0.03517152741551399, 0.015462483279407024, 0.020787840709090233, -0.11087454110383987, -0.042231202125549316, -0.2196306437253952, 0.03805973008275032, 0.00817632582038641, 0.10609370470046997, -0.09153258055448532, -0.08546658605337143, 0.0016774982213974, 0.057364750653505325, -0.08112846314907074, 0.07913698256015778, -0.16708484292030334, 0.018249809741973877, 0.0355200320482254, -0.09042487293481827, -0.06830199062824249, 0.03356273099780083, -0.09545302391052246, -0.09712541103363037, -0.032011762261390686, 0.0569194033741951, -0.07875460386276245, -0.06739256531000137], [-0.10060052573680878, 0.055571749806404114, 4.8123714805115014e-05, 0.044064730405807495, -0.09250567853450775, -0.1598241627216339, -0.05757538974285126, -0.07249309122562408, 0.011730659753084183, 0.041178688406944275, 0.1113993376493454, 0.06506823003292084, -0.005930562969297171, -0.07564440369606018, 0.03193151578307152, 0.014192885719239712, 0.017721738666296005, -0.04326584190130234, 0.01620289497077465, -0.04640525206923485, -0.06348948180675507, -0.02439577877521515, 0.02741299569606781, -0.060782063752412796, -0.09102663397789001, 0.06610878556966782, -0.04547632858157158, 0.12154985964298248, -0.1346256583929062, -0.12147799134254456, -0.033641863614320755, -0.06061488017439842, -0.1363644152879715, 0.004290146287530661, 0.04733658209443092, -0.014693975448608398, 0.02054600417613983, 0.07736706733703613, -0.1372707635164261, 0.10697720944881439, -0.07755398005247116, 0.034305721521377563, -0.06515385210514069, 0.021891584619879723, -0.01511149201542139, 0.0780390202999115, 0.06377529352903366, 0.0015877749538049102, -0.04029710590839386, -0.17415361106395721, -0.11091427505016327, 0.05147121846675873, 0.008172419853508472, -0.11337420344352722, -0.013765381649136543, 0.12032335251569748, 0.054733891040086746, -0.09640230238437653, -0.0439581423997879, 0.06376460939645767, -0.10281573235988617, -0.032035619020462036, -0.11426051706075668, 0.07205251604318619], [-0.045705705881118774, 0.006561711430549622, -0.004504993557929993, -0.01941460371017456, 0.10379482805728912, -0.09023920446634293, -0.09860514849424362, -0.15956448018550873, 0.040229059755802155, -0.01000149641185999, 0.04216815531253815, -0.054415423423051834, -0.016266198828816414, -0.08702835440635681, -0.039137303829193115, 0.023976722732186317, 0.05407528206706047, -0.09140153229236603, -0.16838940978050232, -0.06321708858013153, -0.07414962351322174, 0.08270956575870514, 0.0398542620241642, -0.1899111270904541, 0.08452712744474411, -0.10725099593400955, -0.12370677292346954, 0.06003919243812561, 0.03880378231406212, 0.05971500277519226, -0.04920365288853645, 0.03230917453765869, -0.09184946864843369, -0.17600581049919128, -0.03797413036227226, 0.1200493723154068, 0.054620251059532166, 0.07431355863809586, -0.08506626635789871, -0.0004307329945731908, -0.10000129044055939, 0.08074723184108734, -0.05169173702597618, -0.015116384252905846, 0.03998379036784172, -0.02455211617052555, -0.19356389343738556, 0.06624917685985565, 0.04283694922924042, -0.13449500501155853, 0.03990175575017929, 0.11161409318447113, -0.17522495985031128, -0.14919587969779968, -0.15114258229732513, 0.01925460807979107, -0.06919971108436584, -0.12619943916797638, 0.09542815387248993, -0.14573734998703003, 0.06536470353603363, -0.027863290160894394, -0.06001347675919533, -0.09458038955926895], [-0.05741679668426514, -0.013914495706558228, 0.06358666718006134, -0.07553322613239288, 0.04724188148975372, -0.10919623076915741, -0.11744694411754608, -0.00707358680665493, -0.009997671470046043, -0.18285313248634338, 0.06742309033870697, 0.06337511539459229, -0.04297056794166565, -0.10718905925750732, 0.06759488582611084, 0.03177648410201073, -0.11879315972328186, 0.006543527822941542, 0.046372056007385254, 0.048812270164489746, 0.11498162150382996, -0.08167928457260132, -0.07191799581050873, 0.02832643687725067, -0.0665721595287323, -0.09865880757570267, -0.15570491552352905, 0.052485302090644836, -0.03263113275170326, -0.06376545131206512, -0.15196652710437775, 0.03288434445858002, -0.08309587836265564, -0.06876937299966812, 0.034496769309043884, 0.11790989339351654, 0.0803040862083435, 0.0627257227897644, -0.13616107404232025, 0.010059836320579052, 0.05446036159992218, 0.07200555503368378, -0.17808158695697784, 0.11783748865127563, -0.08696776628494263, -0.09319230914115906, -0.15003415942192078, -0.009986227378249168, 0.10979977250099182, -0.025035744532942772, -0.13161170482635498, -0.02011309564113617, -0.18533721566200256, -0.009220409207046032, -0.17420993745326996, -0.0069236611016094685, 0.04265493154525757, -0.15932871401309967, -0.08125481009483337, -0.0078055113554000854, -0.07135406136512756, -0.18359242379665375, 0.0510353147983551, 0.058777373284101486], [0.08965548872947693, 0.03971387445926666, 0.01833747886121273, -0.11904853582382202, 0.6512259840965271, 0.27763205766677856, 0.4291211664676666, -0.2490035444498062, 0.5607873797416687, 0.09941218793392181, 0.07432086765766144, 0.39926376938819885, 0.5918886661529541, 0.05350103974342346, -0.01703072525560856, -0.23511317372322083, -1.5544809103012085, 0.3737082779407501, 0.21519038081169128, 0.7292398810386658, 0.020308032631874084, -0.068033367395401, 0.5872897505760193, 0.14171433448791504, -5.5144124031066895, 0.25157099962234497, 0.4929161071777344, 0.0004614591598510742, -0.7541596293449402, 0.08144591748714447, 0.5899676084518433, 0.10429517179727554, 0.7306187748908997, 0.5211336016654968, -2.3560338020324707, -0.10803297162055969, -0.01649242639541626, -3.2249298095703125, 0.1531975120306015, -0.8034533858299255, 0.6715781092643738, -0.10343971848487854, 0.05814698338508606, 1.6947788000106812, 0.1444767266511917, -4.546293258666992, 0.4022769033908844, 0.40489301085472107, -0.00544331967830658, 0.6469056606292725, 0.2722506821155548, -0.10247813165187836, 0.1906745731830597, 0.46068039536476135, 0.7780368328094482, -2.631174087524414, 0.25477489829063416, 0.6795810461044312, -0.0036095380783081055, -0.023975057527422905, -0.06768885254859924, 0.21647383272647858, 0.5220969319343567, 0.5479711294174194], [-0.06512187421321869, -0.09492459893226624, -0.10728652030229568, 0.05904877185821533, 0.05915093049407005, 0.35612890124320984, 0.08569437265396118, 0.06635274738073349, 0.08499769121408463, 0.436646044254303, 0.10311627388000488, 0.2861082851886749, -0.9695616364479065, -0.050192564725875854, -0.056868650019168854, -2.3292043209075928, 0.7639841437339783, 0.42358526587486267, 0.4089839458465576, 0.24223871529102325, 0.08509902656078339, 0.08717577159404755, 0.15999560058116913, 0.3109145760536194, 1.4170331954956055, 0.3437937796115875, 0.3286379277706146, 0.05712294578552246, -0.567454993724823, -0.07399912178516388, 0.022944251075387, 0.08285925537347794, 0.03609855845570564, 0.18867267668247223, 2.1471564769744873, 0.11608321964740753, -0.009211868047714233, -1.8593785762786865, 0.3174554705619812, -5.049793243408203, 0.11621099710464478, -0.09358111023902893, 0.39300593733787537, -1.1560581922531128, 0.3752794861793518, 0.3054101765155792, 0.23044295608997345, 0.3760368824005127, -0.0994589775800705, 0.02406463585793972, 0.322462260723114, 0.04170304536819458, 0.4227571487426758, 1.0481573343276978, 1.4931362867355347, -2.748026132583618, 0.12419692426919937, 0.028302215039730072, -0.12471678107976913, -0.1736050397157669, -0.03237082064151764, -0.33735182881355286, 0.14416879415512085, -0.07512164115905762], [-0.10959349572658539, -0.09623642265796661, 0.1151556521654129, -0.06262747943401337, -0.16521036624908447, -0.043380025774240494, -0.17612235248088837, -0.06944191455841064, -0.03910597786307335, -0.10730458050966263, 0.0041556209325790405, 0.055193670094013214, 0.019366886466741562, -0.12419530749320984, -0.05063805729150772, -0.07309529185295105, -0.06506682932376862, 0.0012530798558145761, -0.12008169293403625, -0.11475560069084167, -0.0036776214838027954, -0.035962626338005066, 0.06500977277755737, 0.062435902655124664, -0.043915655463933945, 0.04812392219901085, -0.02653876505792141, -0.10235518217086792, -0.11581727117300034, -0.12065312266349792, -0.1042746752500534, -0.007129672449082136, 0.07718609273433685, 0.05214126780629158, 0.09464464336633682, 0.09772859513759613, 0.019326835870742798, 0.04312308877706528, -0.05229509621858597, 0.07354374974966049, -0.17366395890712738, -0.031135961413383484, 0.01029769517481327, -0.06756260991096497, -0.07002288848161697, -0.13619518280029297, -0.07301190495491028, -0.04100978001952171, -0.08741623163223267, -0.010428309440612793, 0.06647147238254547, -0.08779151737689972, -0.05746191367506981, 0.009257095865905285, 0.10846701264381409, 0.07800343632698059, -0.18858343362808228, -0.11542324721813202, 0.09400437772274017, -0.011867146007716656, -0.03653028607368469, 0.03834391385316849, -0.14419059455394745, 0.04113389924168587], [-0.10919031500816345, 0.06648601591587067, 0.007571116089820862, -0.007992401719093323, 0.04628978669643402, -0.11139598488807678, 0.013099882751703262, -0.027852505445480347, 0.05122990906238556, -0.16153322160243988, 0.02379429340362549, -0.11815802752971649, -0.16784271597862244, -0.10256128013134003, 0.12261962890625, -0.07284128665924072, 0.06585060060024261, -0.05613945424556732, -0.06889785826206207, -0.09638439118862152, -0.09297166764736176, 0.024881675839424133, -0.11809082329273224, 0.022758018225431442, -0.033275313675403595, -0.027969542890787125, 0.020570114254951477, 0.03821805119514465, -0.04587499797344208, -0.052320271730422974, -0.020006835460662842, -0.0578012615442276, 0.006967365741729736, -0.02691902220249176, 0.05185898393392563, -0.0914914608001709, -0.12163025140762329, -0.09952330589294434, -0.09480497986078262, 0.040806472301483154, -0.05385230481624603, 0.018934279680252075, -0.0565444715321064, 0.00504656694829464, -0.07169702649116516, -0.11472122371196747, -0.10973525792360306, -0.1303321123123169, 0.08492547273635864, 0.03596578538417816, -0.08591987192630768, 0.12481601536273956, 0.009554687887430191, -0.005265966057777405, 0.052912190556526184, 0.041593506932258606, -0.06993816792964935, -0.11294029653072357, 0.09249646961688995, 0.10127687454223633, -0.030023008584976196, 0.08256420493125916, -0.12380872666835785, 0.022452712059020996], [0.11787160485982895, -0.0030386000871658325, -0.0953420028090477, -0.06822532415390015, 0.24673448503017426, 0.17972414195537567, 0.011295659467577934, 0.02253437228500843, 0.26398560404777527, 0.1949414759874344, -0.07694138586521149, 0.15751172602176666, -0.3282354772090912, 0.12361939251422882, -0.0674409419298172, -0.39135947823524475, -4.39037561416626, 0.3176513910293579, 0.09634555876255035, 0.24092444777488708, 0.03516016900539398, 0.12377797067165375, 0.2716405987739563, -0.017926951870322227, -2.0107500553131104, -0.04463566094636917, 0.19785135984420776, 0.005146726965904236, -0.4233921468257904, -0.049818381667137146, 0.32948487997055054, 0.10916603356599808, 0.32916250824928284, 0.16943779587745667, -4.362600803375244, 0.034874677658081055, 0.023388952016830444, 1.701549768447876, 0.14639200270175934, -2.0368285179138184, 0.10184939205646515, 0.000144079327583313, 0.025498688220977783, -0.2986522912979126, 0.16989029943943024, -2.30938720703125, 0.25895872712135315, 0.23006843030452728, 0.003780081868171692, 0.23563836514949799, 0.06462886184453964, -0.08207310736179352, 0.14514482021331787, -0.6646057963371277, -1.1827888488769531, 3.348588705062866, 0.022740457206964493, 0.23506930470466614, 0.08343939483165741, -0.17500074207782745, 0.07193845510482788, -0.043220940977334976, 0.23233403265476227, 0.32069799304008484], [-0.11241807043552399, 0.03576590120792389, 0.08492729067802429, -0.00048078596591949463, -0.25023967027664185, -0.1286640167236328, -0.03493214026093483, 0.022924726828932762, -0.015238317660987377, -0.21916449069976807, 0.1197461187839508, 0.0050248317420482635, -0.17388108372688293, -0.08407194912433624, -0.10490094870328903, -0.22912706434726715, -0.16932730376720428, 0.007494477089494467, -0.05098222568631172, 0.1072033941745758, -0.05252470076084137, 0.11657865345478058, -0.15582576394081116, -0.005397475324571133, -0.1527782678604126, -0.12214139848947525, -0.17487359046936035, -0.08766728639602661, -0.045608602464199066, 0.01483529806137085, -0.11532770842313766, -0.0666823759675026, -0.24405927956104279, -0.23260615766048431, -0.26170897483825684, -0.09481972455978394, -0.1017090380191803, -0.11253377795219421, -0.16489705443382263, -0.31007158756256104, -0.06133261322975159, 0.07601688802242279, -0.13841502368450165, -0.14911262691020966, 0.010644834488630295, -0.1273965686559677, -0.03537355363368988, -0.00213028397411108, -0.04948464035987854, -0.1885203868150711, -0.16319845616817474, -0.06453453004360199, -0.07608084380626678, -0.2381380796432495, -0.22035075724124908, -0.19333672523498535, -0.004104156047105789, -0.19034211337566376, -0.11574980616569519, -0.25133824348449707, -0.050812557339668274, -0.24976880848407745, -0.19142846763134003, -0.15654797852039337], [0.04602370783686638, -0.02108106017112732, -0.09013617783784866, -0.08568042516708374, 0.015991272404789925, -0.01661933958530426, 0.08003352582454681, -0.14557966589927673, -0.038916364312171936, -0.0011868561850860715, -0.033483147621154785, 0.029444092884659767, -0.04957251250743866, 0.018401578068733215, -0.006137941963970661, -0.10558891296386719, 0.008531716652214527, -0.14861026406288147, -0.05663149803876877, 0.07791922241449356, 0.040301695466041565, 0.12040255963802338, -0.06316015869379044, -0.021534884348511696, 0.1125752404332161, 0.04294143617153168, 0.017171181738376617, -0.05069276690483093, 0.10922929644584656, 0.06418682634830475, -0.03423643857240677, -0.042839545756578445, -0.017571501433849335, 0.07690044492483139, -0.11656545102596283, -0.045092254877090454, -0.12017284333705902, 0.005156651604920626, -0.0044324565678834915, -0.04846357926726341, -0.0068663726560771465, -0.10982957482337952, -0.1494915634393692, 0.10008921474218369, -0.12461747974157333, 0.043002743273973465, 0.07959447801113129, -0.07269750535488129, 0.0072372108697891235, -0.11514773219823837, -0.04170016199350357, -0.06502753496170044, 0.010039705783128738, -0.03720615431666374, -0.03889716789126396, -0.05038950592279434, 0.08031164109706879, -0.11022550612688065, -0.02312898263335228, 0.07069403678178787, 0.0655534416437149, 0.08912612497806549, 0.05792051926255226, 0.13268163800239563], [0.061219632625579834, 0.0025480836629867554, 0.12307745218276978, 0.10595045983791351, -0.047089800238609314, -0.13322022557258606, -0.0725565180182457, -0.13187122344970703, 0.10762448608875275, 0.02124076522886753, 0.004860639572143555, 0.10218697041273117, -0.048439305275678635, 0.10326184332370758, -0.0011041611433029175, 0.01915748231112957, -0.10959912836551666, -0.11475913971662521, -0.16501855850219727, 0.0860113650560379, -0.001477569341659546, -0.011607915163040161, -0.040215544402599335, -0.08975192159414291, -0.03193657472729683, -0.035055987536907196, -0.04882165044546127, -0.01767633855342865, -0.19529111683368683, -0.03579212725162506, 0.08421698212623596, 0.014330193400382996, -0.04394117370247841, -0.018095390871167183, -0.13577038049697876, -0.02692866325378418, 0.047945186495780945, 0.08942544460296631, -0.01673574186861515, -0.11588241904973984, 0.03347150236368179, 0.10014912486076355, -0.021284226328134537, 0.05207151547074318, -0.1386430412530899, -0.12572841346263885, -0.09450654685497284, -0.15366002917289734, -0.11218979954719543, 0.030585842207074165, -0.07084564119577408, -0.10257512331008911, -0.012641842477023602, -0.057627785950899124, -0.03251993656158447, 0.012930783443152905, -0.07197170704603195, 0.09233096241950989, 0.07153931260108948, -0.05569753423333168, 0.03132142126560211, -0.0914960727095604, -0.11579140275716782, -0.05577494204044342], [0.04795575514435768, 0.12111462652683258, 0.026500342413783073, -0.010261818766593933, 0.13835661113262177, 0.12361404299736023, 0.044467128813266754, 0.014595773071050644, 0.0711694285273552, 0.11865943670272827, 0.04849769175052643, 0.2853021025657654, -0.4124525189399719, 0.0744081437587738, 0.022701965644955635, -0.14214400947093964, -4.758795738220215, 0.3120572865009308, 0.14996515214443207, 0.11712584644556046, -0.008842423558235168, 0.09454934298992157, 0.19785088300704956, 0.11507153511047363, -1.5302907228469849, 0.22576819360256195, 0.2652280926704407, -0.017139464616775513, -1.246996521949768, 0.02559754252433777, 0.1593121737241745, -0.07979950308799744, 0.281423956155777, 0.19490011036396027, -4.883661270141602, 0.04310992360115051, -0.020666882395744324, 0.6583487391471863, 0.011007990688085556, -2.2689268589019775, 0.2369319051504135, 0.05474121868610382, -0.007264027372002602, -0.7005764842033386, 0.11396537721157074, -1.5947126150131226, 0.24228444695472717, 0.2694789469242096, -0.016116514801979065, 0.24057818949222565, 0.17605391144752502, 0.06859582662582397, 0.268161803483963, -0.5180061459541321, -0.7432131171226501, 1.536767840385437, 0.20085597038269043, 0.31113535165786743, 0.0875948816537857, -0.11488650739192963, -0.09020853042602539, -0.010189932771027088, 0.05142344534397125, 0.2853654623031616], [0.04260985553264618, -0.12262816727161407, -0.0953245759010315, -0.08454719185829163, -0.009899303317070007, -0.1169930025935173, -0.025436662137508392, -0.11607374250888824, 0.02575477957725525, 0.08753912150859833, -0.09726472198963165, -0.05581305921077728, -0.11973623931407928, -0.01793588697910309, -0.10989288985729218, -0.12773460149765015, 0.0856439471244812, -0.07417123019695282, -0.09945002943277359, 0.05048161745071411, -0.044913724064826965, 0.045079782605171204, 0.07411962002515793, -0.06889447569847107, 0.0072311218827962875, 0.08072315901517868, -0.0322614386677742, 0.11790645122528076, -0.11298070847988129, 0.07290396094322205, -0.021209627389907837, 0.0696881115436554, 0.002175944158807397, 0.0001389533281326294, 0.0332283079624176, 0.031518012285232544, 0.06665670871734619, 0.029392868280410767, 0.057913847267627716, 0.08705645799636841, 0.06831429898738861, 0.08318018913269043, 0.06578957289457321, 0.018536215648055077, -0.08914538472890854, -0.024451585486531258, -0.11315642297267914, -0.10636668652296066, 0.026536986231803894, -0.02960611879825592, 0.029383927583694458, 0.009251698851585388, -0.0266265831887722, -0.08132003247737885, 4.6162465878296643e-05, -0.09056690335273743, -0.08908752351999283, 0.08761629462242126, 0.05616900324821472, 0.037932127714157104, 0.06501609086990356, -0.10462777316570282, 0.029090510681271553, 0.005320817232131958], [0.11717614531517029, 0.07203514873981476, 0.07161661982536316, -0.10495637357234955, -0.05007648095488548, -0.13739798963069916, 0.020874259993433952, -0.19972163438796997, 0.0091353515163064, -0.16246362030506134, 0.06780898571014404, -0.2235395759344101, -0.1197686716914177, -0.026040107011795044, -0.11237455159425735, -0.04013536125421524, -0.03955106437206268, -0.03627672418951988, -0.1376057118177414, 0.031369056552648544, -0.0015387386083602905, 0.07813383638858795, -0.08330206573009491, -0.09005945175886154, -0.01110745221376419, -0.21172918379306793, -0.17762279510498047, -0.0887971967458725, -0.08613733947277069, -0.026294082403182983, 0.04143232852220535, -0.053197138011455536, -0.012447590008378029, -0.12232330441474915, -0.059222981333732605, -0.1130257099866867, 0.0853915810585022, 0.16383619606494904, -0.09407740831375122, 0.0301511250436306, -0.1590479165315628, 0.00023083388805389404, -0.12095459550619125, 0.07210367918014526, -0.16156192123889923, 0.07248136401176453, -0.08133509755134583, -0.05435861274600029, -0.04193033277988434, 0.09468071162700653, -0.16292786598205566, 0.007634207606315613, -0.2186122089624405, 0.032084234058856964, 0.14421768486499786, -0.0804310292005539, -0.22210288047790527, -0.08048870414495468, -0.06385248899459839, 0.007290671579539776, -0.07181040942668915, 0.020473038777709007, -0.10619457811117172, -0.014885926619172096], [0.0653691291809082, 0.006072014570236206, 0.02056463062763214, -0.024061784148216248, -0.004844358656555414, 0.082509845495224, 0.15038852393627167, 0.43336206674575806, 0.17900511622428894, -0.004562344402074814, -0.043938249349594116, 0.11701849102973938, -1.4838238954544067, 0.0345810204744339, -0.025642406195402145, -1.2799906730651855, 1.6101610660552979, 0.043684180825948715, 0.2069721519947052, 0.12270426750183105, -0.04053233563899994, -0.10499894618988037, 0.12511661648750305, 0.16043482720851898, 3.112995147705078, 0.16883324086666107, -0.10987069457769394, 0.12034215033054352, 0.7745758295059204, -0.10885776579380035, -0.18562284111976624, 0.09628994762897491, -0.03448829799890518, -0.005719680339097977, 4.021984100341797, 0.09700343012809753, -0.05774278938770294, 0.7798418402671814, 0.16267575323581696, 1.3202446699142456, -0.012447087094187737, 0.016743332147598267, 0.04927893355488777, -1.6465411186218262, -0.022549813613295555, 0.9391559362411499, 0.0966583862900734, 0.08704396337270737, -0.017926394939422607, -0.05192742496728897, 0.021781036630272865, -0.09393720328807831, 0.07865267246961594, 0.8528193235397339, 1.1966511011123657, -1.2690166234970093, 0.09440761059522629, -0.08322539180517197, 0.07402953505516052, -0.24038782715797424, 0.06622062623500824, -0.40024492144584656, -0.06476029753684998, -0.16068226099014282], [0.07818341255187988, 0.023420661687850952, 0.09680186212062836, -0.0017743408679962158, -0.038733143359422684, -0.29389363527297974, 0.01178294513374567, -0.07677444815635681, -0.09662613272666931, -0.09603098034858704, -0.050497859716415405, -0.1642480492591858, -0.08531966805458069, 0.06886075437068939, -0.03793155029416084, -0.03426363691687584, -0.04577072337269783, -0.22310321033000946, -0.09070759266614914, -0.16020455956459045, 0.04544498026371002, 0.07597631216049194, -0.1272498071193695, -0.018435874953866005, -0.09188020974397659, -0.3015156388282776, -0.20054365694522858, -0.08455568552017212, 0.012021760456264019, -0.08019080758094788, -0.08895702660083771, -0.11178062856197357, -0.11958838999271393, -0.1969679594039917, 0.002527897711843252, 0.0027723312377929688, 0.1149882972240448, -0.05430621653795242, -0.1763637214899063, -0.08937901258468628, -0.15280821919441223, 0.09271091222763062, -0.1802322417497635, -0.019793108105659485, -0.16741321980953217, -0.09461373090744019, 0.026196738705039024, -0.041960302740335464, 0.027510374784469604, -0.04321831837296486, 0.01604451984167099, 0.05530884861946106, -0.06802421808242798, -0.04704649746417999, 0.04244360700249672, -0.005872952751815319, -0.01756265200674534, 0.03282896429300308, -0.06541134417057037, -0.2085522711277008, -0.050719454884529114, -0.059067483991384506, 0.11113138496875763, 0.12602156400680542], [-0.10418397188186646, -0.08790761232376099, -0.08327773213386536, -0.06477569043636322, 0.036555588245391846, 0.03325338661670685, -0.0691860169172287, -0.029932036995887756, -0.05316666513681412, -0.06004190817475319, 0.11654786765575409, 0.03752154856920242, -0.06366698443889618, -0.07055819034576416, -0.054375410079956055, -0.0231296569108963, 0.07191557437181473, -0.17053011059761047, -0.009816125966608524, -0.10693398118019104, -0.09534527361392975, 0.033212870359420776, -0.1422208547592163, -0.02453087829053402, 0.0040106019005179405, -0.018936870619654655, -0.1608014851808548, 0.06476493179798126, 0.008115887641906738, -0.016402989625930786, 0.0968477725982666, -0.06654295325279236, 0.04499955475330353, -0.08161149173974991, -0.1189904659986496, 0.07797779142856598, -0.04175539314746857, -0.003657289082184434, 0.013723230920732021, -0.06789574027061462, -0.05881883203983307, 0.05466251075267792, -0.13702869415283203, -0.048351068049669266, -0.13774582743644714, -0.052297741174697876, -0.1050160676240921, -0.15818622708320618, -0.022988155484199524, 0.012752920389175415, -0.14059703052043915, -0.03669753670692444, 0.046901557594537735, -0.11589130759239197, 0.04174990952014923, 0.009379640221595764, 0.008829966187477112, -0.08844050765037537, 0.06703279912471771, 0.03655685484409332, 0.032866522669792175, 0.08729873597621918, 0.00996522605419159, -0.01290060579776764], [-0.014012232422828674, -0.08577437698841095, 0.11677835881710052, -0.03545700013637543, 0.05455848574638367, -0.050030406564474106, 0.043986134231090546, -0.10650905966758728, -0.039157435297966, 0.07523521035909653, 0.04001744091510773, -0.026803722605109215, 0.027039511129260063, 0.03596748411655426, -0.09802953153848648, -0.08458244800567627, 0.007304215803742409, 0.022357892245054245, 0.018488971516489983, 0.039389193058013916, -0.12483315169811249, -0.08106580376625061, -0.05061117559671402, -0.062415868043899536, -0.03949896991252899, -0.0775875449180603, -0.10387745499610901, -0.04143989086151123, -0.09306111931800842, -0.01198454201221466, -0.06625612825155258, 0.03988804295659065, -0.10914024710655212, -0.142225980758667, 0.006944100838154554, 0.11922742426395416, -0.07730334997177124, -0.1287284642457962, -0.03389131277799606, -0.10975998640060425, 0.05962854251265526, -0.055272966623306274, 0.00597147922962904, -0.08504638075828552, -0.05788198858499527, 0.07446002960205078, 0.05897099897265434, -0.0035013093147426844, 0.09114012122154236, 0.07192078232765198, 0.017947116866707802, -0.09812703728675842, -0.029960069805383682, -0.05441415682435036, 0.0647871345281601, 0.1329805552959442, -0.1204790323972702, 0.0034162846859544516, 0.06614077091217041, -0.0674133375287056, -0.003759428858757019, -0.040402550250291824, 0.04990715906023979, -0.04535229504108429], [0.10124751925468445, -0.0470258891582489, 0.06690660119056702, -0.01520751416683197, 0.002297535538673401, -0.09543417394161224, 0.04815779626369476, -0.11842788755893707, -0.11487467586994171, 0.026223376393318176, -0.09108804166316986, -0.017145276069641113, 0.0016913563013076782, 0.006911635398864746, -0.06617440283298492, -0.028982624411582947, -0.025588616728782654, -0.006355687975883484, 0.118903249502182, -0.07587704062461853, -0.06847070157527924, 0.0591079443693161, -0.09974014759063721, -0.06947353482246399, 0.013705819845199585, -0.10752612352371216, -0.013310626149177551, -0.06874220073223114, -0.04917873442173004, 0.06810608506202698, 0.03728504478931427, 0.09408624470233917, 0.11707700788974762, -0.030913040041923523, 0.11355049908161163, 0.05378998816013336, -0.1240251362323761, 0.05016335844993591, -0.08856256306171417, -0.0385817289352417, 0.03892773389816284, 0.0026657134294509888, 0.09653030335903168, -0.038478970527648926, -0.12437242269515991, 0.10856650769710541, -0.12382844090461731, -0.07931852340698242, 0.11352530121803284, 0.07357949018478394, -0.05901247262954712, -0.08968926966190338, 0.09199269115924835, -0.01070334017276764, -0.10077735781669617, 0.022779494524002075, 0.06344832479953766, -0.05284872651100159, 0.11968216300010681, 0.06277687847614288, -0.006855785846710205, -0.032760873436927795, 0.10464432835578918, -0.0322781503200531], [-0.040125057101249695, 0.07351924479007721, 0.05700799822807312, 0.045131534337997437, 0.07702041417360306, -0.4952729344367981, -0.09937802702188492, 0.17466123402118683, 0.14197508990764618, -0.6586630344390869, 0.09453712403774261, -0.41189271211624146, -0.15208083391189575, -0.054660022258758545, 0.09403582662343979, 0.48507535457611084, 0.39158010482788086, -0.5345533490180969, -0.7008853554725647, 0.22981144487857819, -0.049999505281448364, 0.05713431537151337, -0.12681461870670319, 0.047887157648801804, -0.46679797768592834, -0.36851269006729126, -0.5022276043891907, 0.1038743257522583, 0.6631714701652527, 0.07205882668495178, -0.0503653883934021, 0.015047678723931313, 0.04004760459065437, -0.21405205130577087, -0.9965883493423462, -0.05052807927131653, 0.05094258487224579, 0.7344464063644409, -0.25281190872192383, 1.2299290895462036, -0.083196260035038, -0.05467340350151062, -0.17473560571670532, -0.06320933252573013, -0.41005802154541016, 0.6052709221839905, -0.6082549095153809, -0.6269133687019348, 0.03720948100090027, 0.05178325995802879, -0.16710151731967926, -0.11706344783306122, -0.3901688754558563, 0.3899947702884674, 0.44802388548851013, 0.7962108254432678, -0.41395172476768494, -0.05584178492426872, -0.04097457230091095, 0.18808314204216003, -0.11304974555969238, 0.1950370818376541, 0.0027311723679304123, 0.15556837618350983], [-0.07093793153762817, 0.07578656077384949, 0.019656971096992493, -0.0878242701292038, -0.09637397527694702, -0.016006898134946823, -0.03612344339489937, -0.06207320839166641, 0.10959440469741821, -0.07503920048475266, 0.08303864300251007, 0.08532296121120453, -0.09952293336391449, 0.11008821427822113, 0.049289271235466, -0.05660153552889824, 0.07649986445903778, 0.050565820187330246, -0.0829145535826683, 0.06673994660377502, 0.03953324258327484, 0.0046716779470443726, -0.043827444314956665, -0.0005981327849440277, -0.1220596581697464, 0.05725058168172836, -0.12062282860279083, 0.10285906493663788, -0.02449166774749756, 0.00562112033367157, -0.0758606418967247, -0.0802387148141861, -0.1015562117099762, -0.08863229304552078, 0.10309810936450958, 0.0013069212436676025, -0.06480874121189117, -0.12942993640899658, -0.11394844204187393, -0.08263915777206421, 0.0606156587600708, 0.049475789070129395, -0.08578389137983322, -0.11745879054069519, 0.00810124259442091, -0.07046868652105331, 0.07046745717525482, -0.11855147778987885, -0.06400911509990692, 0.05589431896805763, -0.0024287141859531403, 0.1036500483751297, -0.02341713383793831, -0.0932382196187973, 0.06778986752033234, -0.07520481944084167, -0.05400596186518669, -0.09800244867801666, -0.0647353082895279, -0.05730836093425751, -0.02244347333908081, 0.051083099097013474, 0.07502424716949463, -0.018664345145225525], [0.011774414218962193, -0.07198221981525421, -0.029086701571941376, -0.015032067894935608, -0.4488801062107086, 0.4223840832710266, 0.15228790044784546, 0.6624783277511597, -0.07823172211647034, 0.501783549785614, -0.06868822872638702, 0.30583590269088745, 0.6061655282974243, -0.04829004406929016, 0.05186661332845688, 6.052054405212402, -1.1023800373077393, 0.3350355923175812, 0.5730388164520264, 0.24568656086921692, 0.02093963325023651, 0.11770796775817871, 0.11154087632894516, 0.5213223099708557, -1.0595576763153076, 0.5328996777534485, 0.06390906870365143, -0.08427567780017853, -0.858174741268158, 0.09002195298671722, -0.5221562385559082, 0.006724292878061533, -0.5609722137451172, 0.11058251559734344, -3.185803174972534, 0.013366743922233582, -0.10688897967338562, -0.38960155844688416, 0.6161210536956787, 1.418606162071228, -0.3609342873096466, 0.11968754231929779, 0.4852546751499176, 0.4196857213973999, 0.4497835636138916, 0.22795240581035614, 0.2791126072406769, 0.327496737241745, 0.09746898710727692, -0.4813503921031952, 0.3456430435180664, -0.01851584017276764, 0.4140823781490326, -14.804508209228516, -16.5740966796875, -1.7712252140045166, 0.19785533845424652, -0.49637195467948914, 0.04688446596264839, -3.5438389778137207, 0.004215225577354431, -2.3050918579101562, -0.5731452107429504, -0.5152987241744995]], "bias": [-0.0640946477651596, 0.3879051208496094, 0.25935816764831543, -0.04133351519703865, -0.0751354768872261, 0.08179587125778198, -0.00827505812048912, 0.25846874713897705, 0.27571311593055725, -0.10120551288127899, 0.03824291005730629, 0.051076147705316544, -0.07005664706230164, 0.30221691727638245, 0.2288428097963333, -0.027407212182879448, -0.14144542813301086, 0.3498964011669159, -0.13169707357883453, -0.01505391113460064, 0.0068348608911037445, 0.3861723244190216, -0.013158608227968216, -0.17053422331809998, -0.13847869634628296, -0.07161825895309448, -0.04917656630277634, 0.013990688137710094, -0.10509254038333893, -0.32227206230163574, 0.026029566302895546, 0.18940642476081848], "activation": "relu"}, {"weight": [[-0.00344964605756104, -2.2177295684814453, 0.17852456867694855, -0.012340799905359745, -0.14130963385105133, -0.08395320922136307, 0.5717748403549194, 0.588670015335083, -0.14221081137657166, 0.18466219305992126, 0.0034697677474468946, 0.06665410101413727, -0.11554299294948578, 0.9843222498893738, 0.34296879172325134, -0.04103671386837959, 0.08986049890518188, -1.8424961566925049, -0.06118416786193848, 0.0755167305469513, 0.09363466501235962, -1.2974201440811157, -0.1276748776435852, -0.07425069063901901, 0.08997485786676407, -0.005495322402566671, -0.062018539756536484, 0.016764456406235695, -0.02078969217836857, 0.7912732362747192, -0.1280057728290558, -0.2968771457672119], [-0.17166095972061157, 0.6570268273353577, 0.39292076230049133, 0.15079383552074432, -0.06581518799066544, -0.06980129331350327, 0.7479143738746643, 0.16912026703357697, 0.9175816178321838, -0.2077697366476059, -0.10802990943193436, -0.036329735070466995, -0.1549009084701538, -0.7846956849098206, 0.2188756763935089, -0.02084493450820446, 0.10681749880313873, 0.39799219369888306, 0.05679503455758095, 0.02100343629717827, 0.038488004356622696, -0.1061713770031929, -0.10841517895460129, 0.016335442662239075, 0.6809085607528687, -0.1486816704273224, -0.08531274646520615, 0.005118594504892826, 0.11369156092405319, -3.845585584640503, -0.031025812029838562, -1.4299489259719849], [0.016484985128045082, 0.3683862090110779, 1.023194670677185, 0.17669405043125153, 0.3025284707546234, 0.11240805685520172, -0.8289465308189392, -1.1711513996124268, -1.3185189962387085, -0.05143653601408005, 0.08175230771303177, 0.12922702729701996, -0.23263107240200043, -0.019608836621046066, -1.2546067237854004, -0.14004318416118622, -0.07668588310480118, 0.3601912260055542, 0.14043185114860535, -0.14150665700435638, -0.07895930856466293, 0.3212462067604065, 0.012737486511468887, -0.076625756919384, -0.7753252387046814, -0.19161666929721832, 0.1328263133764267, 0.03759915754199028, 0.02547939121723175, -0.11920987069606781, -0.06854241341352463, 1.1382488012313843], [-0.14050500094890594, 0.3721785545349121, -2.0954043865203857, 0.08523544669151306, 0.006922584492713213, 0.03979345038533211, -0.8829394578933716, 0.5163385272026062, -0.7659741044044495, -0.1620800942182541, -0.18029561638832092, -0.0493910014629364, 0.0364922471344471, 0.19248315691947937, 0.7795770764350891, -0.03854432329535484, -0.058737095445394516, 0.26529115438461304, -0.006524190306663513, 0.12594501674175262, -0.005931774154305458, 0.4979143440723419, 0.08021566271781921, 0.05983275547623634, -0.5563353300094604, -0.03997662663459778, 0.10205205529928207, -0.09288065880537033, -0.09355350583791733, 0.09305169433355331, 0.04452380910515785, 1.3123215436935425]], "bias": [0.22308100759983063, -0.37858375906944275, 0.14261485636234283, 0.21448282897472382], "activation": "softmax"}]}